{"weights_data":{"net.LSTMInitial.weights":[-0.037563242,-0.014740616,-0.10901489,-0.10951789,-0.091004476,0.091700025,0.11119213,-0.10188933,0.041242085,-0.06494969,0.078116365,-0.050707243,0.03004358,0.06501187,-0.06382347,-0.07636035,0.028021567,-0.067386135,0.08335561,0.056565084,-0.10563791,-0.06664254,-0.06837945,-0.0038405433,-0.07715085,-0.023815319,-0.097059205,-0.05577424,0.10436142,-0.096490175,-0.10334466,-0.05998992,0.10135131,-0.062069047,0.09639866,0.034700863,0.020314895,-0.009216763,-0.097785786,-0.0032841861,0.045635603,-0.04155822,0.11692395,0.0045016333,-0.04439427,0.04427273,0.028408997,0.1171295,0.009010829,0.060022198,-0.07555471,-0.05350984,-0.10980314,0.04549802,0.047285847,-0.08408715,0.0016720071,0.011225425,0.09205865,0.023330085,-0.004750535,0.08047163,-0.06536654,-0.10490991,-0.11234913,0.037847333,0.11934135,0.056877963,0.07406785,-0.033315293,0.10942171,-0.04490991,-0.07462436,-0.049556136,0.10389843,0.06561626,0.075391,0.008812971,0.11175997,-0.05902262,0.04594464,-0.0341952,-0.015949436,0.021614082,-0.10885799,0.052190267,-0.065058485,0.08367319,-0.06974806,-0.06835214,0.011316679,0.008490436,-0.0068626553,0.029305287,-0.044532888,0.015387289,-0.019142121,0.12006169,-0.07606913,-0.10017563,0.056036048,-0.115929246,-0.07867073,-0.05669485,-0.07939031,-0.042243674,0.081566654,-0.08292687,0.004442163,-0.07868841,0.02085533,0.056303866,0.036927827,0.013244383,-0.11662652,0.115104534,-0.1089502,0.002800651,0.09250749,0.10993994,0.06947196,0.069818236,0.11298933,0.058328085,-0.11976444,-0.028470717,-0.045267604,0.0070588365,0.023072116,0.11675248,0.046163283,-0.06313132,0.115402915,-0.0024023429,-0.101529,-0.037564106,0.052614726,-0.027593605,0.054657407,0.04831492,0.03733588,0.039189167,-0.033286907,0.11343422,0.11367332,0.08511228,0.10386958,-0.08237262,0.09974133,-0.08433381,-0.06482564,0.10647326,-0.0043830574,-0.032628596,-0.005841218,0.039530583,-0.058424473,-0.06033536,-0.10445049,-0.022119962,0.085616864,0.07211707,0.05107685,-0.106105894,-0.02881962,0.07182696,-0.044294506,-0.014511354,-0.04139085,0.09103865,0.0047562793,0.052500375,-0.046785608,-0.060477752,-0.045197867,0.0022016615,-0.105788976,-0.10313824,-0.0979801,-0.10929333,0.11658894,0.032381423,0.089711376,0.10554039,0.10217997,-0.10722914,-0.0031595603,-0.017288052,-0.053024635,0.06818988,0.0026891157,0.032498635,-0.0061746016,0.030904807,0.027553655,0.08099841,0.104921244,-0.027705051,-0.03983806,0.009739928,0.09959821,0.06816504,0.046274595,-0.077436015,-0.026687711,0.030083843,-0.06711607,0.061973892,0.052613117,0.027746849,-0.053960346,-0.05968688,-0.11988577,0.014570169,0.034527175,0.06710141,0.07923583,-0.11636963,-0.0866829,-0.0652615,0.05967427,-0.09375822,0.0063839927,-0.05811964,0.043730624,-0.11103558,0.11383734,0.11746242,0.08742877,0.040250964,0.10613883,0.069802485,0.073118605,0.094946854,-0.03495957,0.025095113,-0.092832856,-0.048619553,-0.0858455,0.013487868,-0.119302966,0.10606121,-0.09180974,-0.060967717,0.06966934,-0.024625316,0.042389177,0.04225596,0.0018208027,0.068429835,-0.0606977,-0.08721912,0.048877575,0.116336174,0.07790852,0.06640779,0.05246795,-0.05764159,0.0664249,0.037376724,0.055570133,0.029048301,-0.044413857,-0.07220095,-0.09233738,-0.052891582,0.06555035,-0.022095129,-0.10847303,0.022914357,-0.08142695,-0.049181826,0.09207184,0.061155222,0.030860476,0.0138491765,0.10118345,-0.008106984,-0.062932864,-0.11015461,-0.02126699,0.04016394,0.042045496,0.09817285,-0.043224238,-0.04782164,0.08417884,0.0029125884,-0.10361713,-0.04438565,0.047174983,0.105667,-0.03270442,-0.07205625,0.11639645,0.10160994,0.11553898,0.102864094,-0.046916462,0.04982183,-0.01839275,-0.085859574,0.05226565,-0.07279676,0.045205303,0.043648593,0.05751855,-0.06460789,0.058601208,-0.09284084,0.10202434,0.05006828,-0.07877133,0.061924405,-0.015634775,-0.11134938,0.020009287,-0.009626836,-0.032901667,-0.109561615,0.041078232,0.1054515,-0.04979682,-0.040545143,-0.05047051,0.060985915,0.008064441,-0.02157548,0.07504966,0.07213902,0.030043758,-0.0863637,0.061224066,-0.040753298,0.041791864,-0.016137227,0.0047761723,0.055925347,0.030674063,-0.02968277,-0.021091722,0.055295102,0.10101173,0.05515703,0.0020545125,0.073652096,-0.007840656,-0.083102494,-0.061893344,-0.10517995,0.081647106,0.111517765,0.04152087,0.064637415,-0.10413577,-0.028872743,0.09861649,-0.084544644,-0.0635587,0.06437778,-0.088894695,-0.04199419,0.11896754,-0.071806595,-0.0812137,0.0093386695,-0.04845593,-0.0068342164,0.018284343,0.044758223,0.07795938,-0.09257215,0.032099344,0.04297415,-0.07532014,0.08590419,0.09669397,-0.04359287,0.104034506,-0.11865417,-0.010140769,-0.051438846,-0.10133894,-0.04898616,-0.0024952441,-0.03631398,0.06723408,0.09760641,0.078509964,0.07807102,0.07297867,-0.028516687,0.09527559,0.023415394,-0.1078947,0.05633194,-0.09767189,-0.10813446,0.00443428,0.012544967],"net.linear1.bias":[0.0],"net.linear1.weights":[-0.10650498,-0.041794837,-0.30909547,-0.31052166,-0.25802964,0.26000175,0.31526873,-0.288892,0.11693576,-0.18415518,0.22148731,-0.14377284,0.0851841,0.18433145,-0.18096195,-0.21650842,0.079450965,-0.19106336,0.2363424,0.16038188,-0.29952055,-0.188955,-0.19387975,-0.010889292,-0.21874976,-0.06752479,-0.2751969,-0.15813957,0.29590127,-0.27358353,-0.2930184,-0.1700925,0.28736654,-0.17598754,0.27332404,0.09838909,0.057599843,-0.026132762,-0.27725703,-0.009311825,0.12939292,-0.117832154,0.3315204,0.012763679,-0.12587336,0.12552872,0.08054945,0.33210322,0.025548846,0.17018399]}}